    0.145439942947679013E+01    0.933593754151923783E+01   -0.615625021685742624E+00    0.111083474520686946E+04    0.727269435146111531E+00   -0.236487477076648780E+02
    0.145230880415831254E+01    0.931885435943289941E+01   -0.672031880587161012E+00    0.789339435882004636E+03    0.760354764186288112E+00   -0.229359753813916640E+02
    0.166183495568513395E+01    0.915796798437278525E+01   -0.640893450923847308E+00    0.604492637836360018E+03    0.890192513635969074E+00   -0.220313165363866297E+02
    0.152831043520015020E+01    0.929185086568437235E+01   -0.451790851165701834E+00    0.703401877113378760E+03    0.774247736331757475E+00   -0.218340737661511319E+02
    0.129555410213759203E+01    0.947128688400736607E+01   -0.702235434879019849E+00    0.337862615958291656E+03    0.169572891057976877E+00   -0.215689912817623934E+02
    0.142719628610485616E+01    0.934407103364707936E+01   -0.700744834277225337E+00    0.653287746723141026E+03    0.434467247415758817E+00   -0.215246517992099378E+02
    0.123676994820049146E+01    0.952958714808005425E+01   -0.716089908568363409E+00    0.923972798517383808E+03    0.934376854636450926E+00   -0.215086382686728221E+02
    0.138092637100702054E+01    0.939458767179450938E+01   -0.680776186249382853E+00    0.409023117291012227E+03    0.465136806436922456E+00   -0.214569846218544100E+02
    0.175431295733835291E+01    0.909979328208819460E+01   -0.564532986747146914E+00    0.406607592487136912E+03    0.246012720673980140E+00   -0.213189588735380120E+02
    0.129020677596554134E+01    0.947299991873651592E+01   -0.710642760439508692E+00    0.831324269981723091E+03    0.644340900311876852E+00   -0.212875198101649374E+02
    0.139432397292827859E+01    0.938488364750735826E+01   -0.664777965375801694E+00    0.657562157207708879E+03    0.455344426005537484E+00   -0.212424035529958672E+02
    0.172552815499059942E+01    0.910161548474418680E+01   -0.707510424866140131E+00    0.725109717050489394E+03    0.588087669267349455E+00   -0.212384010329253812E+02
    0.165258333338088659E+01    0.916597723046867507E+01   -0.631378158151490121E+00    0.613954392362079602E+03    0.871691800023689845E+00   -0.211763711326591881E+02
    0.165408309566042888E+01    0.917991293353899707E+01   -0.526604299146410382E+00    0.943315486771718270E+03    0.997135590563031471E+00   -0.211539762695942599E+02
    0.144482441455411070E+01    0.936058582732291455E+01   -0.537772275530445931E+00    0.725892294421449947E+03    0.841556609521112775E+00   -0.211166717643952779E+02
    0.139936736031810161E+01    0.937694159763529633E+01   -0.661580344320514602E+00    0.637406328712994878E+03    0.482710991848545212E+00   -0.211098631739586935E+02
    0.135480216201440973E+01    0.942283284803660592E+01   -0.665672029727174985E+00    0.744158301586131302E+03    0.501994742582141051E+00   -0.210645524459726481E+02
    0.134492702684713006E+01    0.942055421121701642E+01   -0.700443424550635907E+00    0.574942539659118552E+03    0.667635292357097621E+00   -0.210089076064319826E+02
    0.137010528054962322E+01    0.941689965441208443E+01   -0.617711801962685048E+00    0.856294175430805012E+03    0.731164378625764444E+00   -0.210064450808911900E+02
    0.140619102238702331E+01    0.938115875748358263E+01   -0.622613360586864228E+00    0.101740452549751080E+04    0.870444427310493873E+00   -0.209673375162341316E+02
    0.127198845025988105E+01    0.951490240053620440E+01   -0.620652826976486605E+00    0.729523032761881836E+03    0.540149931381392667E+00   -0.209487168597294513E+02
    0.128264710519976610E+01    0.949474391942364804E+01   -0.671363798124576139E+00    0.263405347412446417E+03    0.226362649348234052E+00   -0.207818224943378844E+02
    0.166300515233738855E+01    0.913958256296347571E+01   -0.763341027589826249E+00    0.834763426886765274E+03    0.725171567330411659E+00   -0.206671256340482543E+02
    0.130607869961343259E+01    0.945780138874336984E+01   -0.702579478264384161E+00    0.690402845068147940E+03    0.483900743405187517E+00   -0.206234957714384421E+02
    0.124141711444543001E+01    0.952931181339583055E+01   -0.703433937065405690E+00    0.369834621916016374E+03    0.405923599661519197E+00   -0.205796507234446437E+02
    0.155532780785340519E+01    0.926373151242428960E+01   -0.504411989304761832E+00    0.329750248672745272E+03    0.428568711498587995E+00   -0.205191702081363836E+02
    0.164868226440790000E+01    0.916989200833428519E+01   -0.626034980582079292E+00    0.102160570075225098E+04    0.925792958964769319E+00   -0.204412608708041894E+02
    0.125095632397535761E+01    0.951879070035471031E+01   -0.699157532226077016E+00    0.900707112549600879E+03    0.763725737559658668E+00   -0.204133225401479166E+02
    0.165725107481060951E+01    0.914424765573287246E+01   -0.757685274008934151E+00    0.884984194175708581E+03    0.740023924579776060E+00   -0.204041893860929981E+02
    0.134005737903191635E+01    0.944049301296970889E+01   -0.656368707961353604E+00    0.936987292666043686E+03    0.905226799135929072E+00   -0.203847746247294168E+02
    0.131397361138742030E+01    0.947449099849952070E+01   -0.625584040413941445E+00    0.110925565762372548E+04    0.858665832366399262E+00   -0.203458870158746841E+02
    0.166059197621396293E+01    0.917394409308082892E+01   -0.538724359294901589E+00    0.679450037208101548E+03    0.747430843765154340E+00   -0.202986801854387018E+02
    0.133022887147704827E+01    0.944595890187009068E+01   -0.654250843594855747E+00    0.631478103916795931E+03    0.747451399326593102E+00   -0.202524305140286316E+02
    0.154706213703097517E+01    0.924432579972181401E+01   -0.658374959389259828E+00    0.679641616655201574E+03    0.921497711787624185E+00   -0.202285567444317600E+02
    0.127383636446045445E+01    0.949697969894580574E+01   -0.696872018494001821E+00    0.107762468436213544E+04    0.871532384043634978E+00   -0.200070650167209578E+02
    0.134428118648545447E+01    0.943761790859182526E+01   -0.657891533268496254E+00    0.354057802686575201E+03    0.317063844878979262E+00   -0.199692939538246605E+02
    0.164655573958518819E+01    0.916813276044524272E+01   -0.645683615106348086E+00    0.579723310672225466E+03    0.424160121384679734E+00   -0.199688321036688805E+02
    0.150379832796245649E+01    0.930919961354824821E+01   -0.525870474477813099E+00    0.103104178801486205E+04    0.846728620997764136E+00   -0.198926019727983210E+02
    0.126518438281884049E+01    0.951241333649394960E+01   -0.672547554811705695E+00    0.482412051808131650E+03    0.589399977507765516E+00   -0.198856365389539071E+02
    0.148860966198362799E+01    0.931542468110918698E+01   -0.550191422002711095E+00    0.398890058191067737E+03    0.355277390791247427E+00   -0.198717830822844128E+02
    0.141940202709911034E+01    0.939537239447172823E+01   -0.516399228198380911E+00    0.112090987945946472E+04    0.886581848385036175E+00   -0.198687288306285055E+02
    0.134812915424323365E+01    0.941382433013406050E+01   -0.698509317647839190E+00    0.878767278662441299E+03    0.842526215590706840E+00   -0.198628000005876117E+02
    0.125695886191168649E+01    0.952624445162746625E+01   -0.658944362558669505E+00    0.989616636707881298E+03    0.772519342827150846E+00   -0.198450024534631702E+02
    0.163358866957119653E+01    0.918271928629632761E+01   -0.613537671860505007E+00    0.617726472014384626E+03    0.713909422550095818E+00   -0.198043985566665803E+02
    0.128504306399740309E+01    0.950166789009096036E+01   -0.647525366361030308E+00    0.985104585298446636E+03    0.953289711607586576E+00   -0.198041721461172529E+02
    0.133213188655289483E+01    0.944244769674808282E+01   -0.653622877552898718E+00    0.621671265615230936E+03    0.461138325578649810E+00   -0.197788733008371125E+02
    0.128305083384119989E+01    0.949688201318379832E+01   -0.659582334266366477E+00    0.852877202889616342E+03    0.653190196662698619E+00   -0.197401145084164362E+02
    0.167163643390744565E+01    0.915463474344398520E+01   -0.617019781057335237E+00    0.372291035120965034E+03    0.290239777616194572E+00   -0.197355377972631700E+02
    0.128525225868514825E+01    0.949763125911278472E+01   -0.655039756972928489E+00    0.784232061592406581E+03    0.910137426806301941E+00   -0.197209642465618984E+02
    0.127347472705261455E+01    0.949241211628122805E+01   -0.700604048669665858E+00    0.743705291576852801E+03    0.932447245160291427E+00   -0.196843320286506405E+02
    0.130231624331393614E+01    0.946911156822987543E+01   -0.683633095621225539E+00    0.800286822507077659E+03    0.666152763465539977E+00   -0.196707725828883611E+02
    0.145358992889168626E+01    0.933751123192562993E+01   -0.617549652289792306E+00    0.640195839597276745E+03    0.845926159983070192E+00   -0.196609268082491759E+02
    0.164189365280626087E+01    0.918571676061131370E+01   -0.550923217732252279E+00    0.437673553744256651E+03    0.275654166334476092E+00   -0.196307400303385258E+02
    0.134595758217009154E+01    0.942710373710460203E+01   -0.678526162482778528E+00    0.420659850319823931E+03    0.581573355840619977E+00   -0.196202242280155481E+02
    0.158202478180481898E+01    0.922294071558929041E+01   -0.595421932712556501E+00    0.697420442643505112E+03    0.567326929167764393E+00   -0.196008786711237661E+02
    0.138651037341595651E+01    0.938306233784597943E+01   -0.701059989688295637E+00    0.583238495063865685E+03    0.717752780799441603E+00   -0.195853967481192193E+02
    0.166674227460700708E+01    0.914623339668105473E+01   -0.704079691158403964E+00    0.953710759519282192E+03    0.923286568729445034E+00   -0.194968496441962955E+02
    0.130151869413202093E+01    0.947412811684752043E+01   -0.673217491621459274E+00    0.706905172979216786E+03    0.597044775156227558E+00   -0.194433334429100668E+02
    0.129906436534048941E+01    0.946414392273483074E+01   -0.708921114215658399E+00    0.771386990278360713E+03    0.885361142231705811E+00   -0.194050873081845445E+02
    0.126980531475895808E+01    0.951543856897279561E+01   -0.626012637804900240E+00    0.108099163002285809E+04    0.833365589776029037E+00   -0.193666735226186972E+02
    0.139129403843026256E+01    0.937304187548978796E+01   -0.708000250981053458E+00    0.739482407539943893E+03    0.765049739363709014E+00   -0.193531181728379877E+02
    0.129784929974651697E+01    0.946995426257439554E+01   -0.693127037098479448E+00    0.713566656842408634E+03    0.682780623796342745E+00   -0.193503819777600796E+02
    0.127978387978399111E+01    0.949119776499409618E+01   -0.685706991665381071E+00    0.854492441308545949E+03    0.662044305061990079E+00   -0.193302315821292190E+02
    0.174977215165490718E+01    0.910193812621848153E+01   -0.571720219527825257E+00    0.546811530651020007E+03    0.707880043933324488E+00   -0.193282366586583123E+02
    0.127450972065787393E+01    0.948925782204838519E+01   -0.706543437929181284E+00    0.889489877073399839E+03    0.948277632229335810E+00   -0.193020364208396060E+02
    0.152078940120477224E+01    0.929048623218091407E+01   -0.538609374378462125E+00    0.454969456941277144E+03    0.544418386277940480E+00   -0.192913804384450529E+02
    0.126974425010616110E+01    0.952823273726913911E+01   -0.578657713365409165E+00    0.106819209266819303E+04    0.799735714375513718E+00   -0.192672163867537840E+02
    0.145491511350250313E+01    0.933574061264935295E+01   -0.616714914775323031E+00    0.660441178745421439E+03    0.801418727717182366E+00   -0.192438830851659333E+02
    0.137801026253895875E+01    0.942588556192991867E+01   -0.550033255256058951E+00    0.100555593052990400E+04    0.841037827313844577E+00   -0.192240731458850895E+02
    0.129184362290398380E+01    0.948303057695484775E+01   -0.664396663879058158E+00    0.370638258059362329E+03    0.240119296153327916E+00   -0.192201267465275940E+02
    0.127047821230584690E+01    0.950382035297632832E+01   -0.686929061667973961E+00    0.257928766651202636E+03    0.259720382643662318E+00   -0.192196597647497782E+02
    0.123432237483779073E+01    0.954206450241013648E+01   -0.699748297551170406E+00    0.905732961920389698E+03    0.711899582276396825E+00   -0.192133459313165247E+02
    0.123638871966955866E+01    0.954742097442445647E+01   -0.666615466079752750E+00    0.937463405780565949E+03    0.958341404118840390E+00   -0.191942189913106169E+02
    0.137732684562816887E+01    0.939310129202731048E+01   -0.702475228617850167E+00    0.442970178280896846E+03    0.395603159768705581E+00   -0.191932658502548676E+02
    0.166624931171076263E+01    0.916084509113364831E+01   -0.597207730043539664E+00    0.473818778614066957E+03    0.500439392697957897E+00   -0.191869811694049801E+02
    0.131349237425007415E+01    0.946557860671968498E+01   -0.661531233324526902E+00    0.368180975164350968E+03    0.291710562860686751E+00   -0.191772380934348483E+02
    0.133983321853856374E+01    0.943669854579906797E+01   -0.672047202449952419E+00    0.265569427228371126E+03    0.315404204204086935E+00   -0.191672586237027289E+02
    0.134134134630498769E+01    0.942457204964449069E+01   -0.696062080886909351E+00    0.937949254630973314E+03    0.731081821182313241E+00   -0.191622590820650665E+02
    0.131205263956740859E+01    0.946889874531953168E+01   -0.657083225095379087E+00    0.730756825642889453E+03    0.932923821196784409E+00   -0.191479865553072557E+02
    0.132765897952217915E+01    0.944530891310918186E+01   -0.666963468134932125E+00    0.667040892407969750E+03    0.471209487756697576E+00   -0.191193250526574268E+02
    0.166061153391373884E+01    0.917011442267069654E+01   -0.564058465858556346E+00    0.455445655837776712E+03    0.378450068086946700E+00   -0.190876095746652332E+02
    0.150780212512477862E+01    0.930907828988295982E+01   -0.509345566165201102E+00    0.954383207083298885E+03    0.919188715903027753E+00   -0.190772203556740081E+02
    0.167185531693195877E+01    0.916034963541300939E+01   -0.567606844786686437E+00    0.541310430555229686E+03    0.529862846000704213E+00   -0.190673075264323622E+02
    0.122667458602162549E+01    0.955600889673826437E+01   -0.675569023972791838E+00    0.809349974867215110E+03    0.852021959621008240E+00   -0.190659990403212873E+02
    0.138331893968971542E+01    0.940576474249056815E+01   -0.598563604463849153E+00    0.367713854153020577E+03    0.243101149507647524E+00   -0.190388557405810772E+02
    0.143882755456313305E+01    0.934024663924008358E+01   -0.671472553405277672E+00    0.384359767775848809E+03    0.495998546293287490E+00   -0.190266077023383708E+02
    0.167184541520311414E+01    0.915323587759721136E+01   -0.631313770242711847E+00    0.648087765870718499E+03    0.675603723317343863E+00   -0.190148672815211981E+02
    0.131303057279564039E+01    0.946579464156606498E+01   -0.660983673141570360E+00    0.701308619297487667E+03    0.714974483959961327E+00   -0.190096245851999868E+02
    0.173018021077096384E+01    0.911495641319209149E+01   -0.585001146200198496E+00    0.633407933661352217E+03    0.633984639252542448E+00   -0.189911448628365562E+02
    0.138099407652143435E+01    0.940428281123705823E+01   -0.617386379637518079E+00    0.353664073952638830E+03    0.325002535582317675E+00   -0.189730856439438540E+02
    0.139997485717431824E+01    0.938320298950099030E+01   -0.647414293936064311E+00    0.100734596937361619E+04    0.784312769701398405E+00   -0.189170059053136228E+02
    0.124503140220740094E+01    0.952366213854556776E+01   -0.707374921692956349E+00    0.922448087829845235E+03    0.855280430289650617E+00   -0.189072530937833250E+02
    0.138403466755747195E+01    0.939959122668904890E+01   -0.645302207019713414E+00    0.651674205481848276E+03    0.465627206987316633E+00   -0.188978763414990212E+02
    0.146924164052760253E+01    0.935007185621617865E+01   -0.495387110425312915E+00    0.817492825510894704E+03    0.843633708671021276E+00   -0.188835315094732721E+02
    0.127741688717390622E+01    0.950806803116446630E+01   -0.654344551181478051E+00    0.657602457010410944E+03    0.547631909184762788E+00   -0.188742634688504687E+02
    0.143075998350209210E+01    0.934461370579011508E+01   -0.686045995097014583E+00    0.509847404533375084E+03    0.403119864890615465E+00   -0.188732036754678525E+02
    0.143294074701110707E+01    0.935430750511345366E+01   -0.629756426002809011E+00    0.680364848650352428E+03    0.542191102507388112E+00   -0.188589393625061170E+02
    0.133369138157456901E+01    0.942677132763103742E+01   -0.706489620303594634E+00    0.604182878135154283E+03    0.568154797561039704E+00   -0.188527888315016448E+02
    0.166999497733585245E+01    0.916226654870013846E+01   -0.577350466982387900E+00    0.412003283081065206E+03    0.350722949611583290E+00   -0.188061301686245663E+02
    0.146739427352375729E+01    0.934505103366588941E+01   -0.529043359192713503E+00    0.611172599695390431E+03    0.748616062890027800E+00   -0.188024095933727544E+02
    0.133168889590829576E+01    0.943241449953395161E+01   -0.702824140974285250E+00    0.763511995311520877E+03    0.932246259060334204E+00   -0.187674859087111763E+02
    0.133168889590829576E+01    0.943241449953395161E+01   -0.702824140974285250E+00    0.763511995311520877E+03    0.932246259060334204E+00   -0.187674859087111763E+02
    0.166996375067673219E+01    0.917005566612117740E+01   -0.518388146678169015E+00    0.666917801104383670E+03    0.583036088147777520E+00   -0.187297463024032993E+02
    0.138379759379235989E+01    0.939725770926446025E+01   -0.660014705870419327E+00    0.596822252569208899E+03    0.568758229178036978E+00   -0.187272625401090309E+02
    0.125648786586856120E+01    0.952162107367619193E+01   -0.674359208326315018E+00    0.951752220363098445E+03    0.892777523275492313E+00   -0.187119601410167178E+02
    0.125648786586856120E+01    0.952162107367619193E+01   -0.674359208326315018E+00    0.951752220363098445E+03    0.892777523275492313E+00   -0.187119601410167178E+02
    0.127409575258727137E+01    0.948987324028724899E+01   -0.706052577876806975E+00    0.979773799284451798E+03    0.897987320010639523E+00   -0.186917510751361107E+02
    0.127409575258727137E+01    0.948987324028724899E+01   -0.706052577876806975E+00    0.979773799284451798E+03    0.897987320010639523E+00   -0.186917510751361107E+02
    0.124982785837123700E+01    0.952085746819085266E+01   -0.696590596673934304E+00    0.982107687253238510E+03    0.920145554605232840E+00   -0.186851754396778773E+02
    0.145438374362522560E+01    0.934762230431281793E+01   -0.575953689232411747E+00    0.867451348374401164E+03    0.945236288926900481E+00   -0.186739977489885050E+02
    0.138415724051049516E+01    0.940021191591244865E+01   -0.640264608337610897E+00    0.562420415051083182E+03    0.406138981421850065E+00   -0.186080774597782543E+02
    0.163524425924450534E+01    0.918785212119635730E+01   -0.567982078832169224E+00    0.685644734372141670E+03    0.668918373854624604E+00   -0.185627218574261867E+02
    0.131747288503206406E+01    0.947644383516631805E+01   -0.591061561820191983E+00    0.990175593405542941E+03    0.854566871962053498E+00   -0.185626960970978132E+02
    0.131747288503206406E+01    0.947644383516631805E+01   -0.591061561820191983E+00    0.990175593405542941E+03    0.854566871962053498E+00   -0.185626960970978132E+02
    0.166965817449761622E+01    0.916042274688528835E+01   -0.596400517325747614E+00    0.563579151205963740E+03    0.602981425356745704E+00   -0.185398763926527081E+02
    0.166965817449761622E+01    0.916042274688528835E+01   -0.596400517325747614E+00    0.563579151205963740E+03    0.602981425356745704E+00   -0.185398763926527081E+02
    0.133785519169508560E+01    0.942177371213038306E+01   -0.708306713265941967E+00    0.865856070023158850E+03    0.959759914979548934E+00   -0.185324759490915980E+02
    0.164186732587367001E+01    0.918310054673688114E+01   -0.568663425855475912E+00    0.828630683809305424E+03    0.653086585869722569E+00   -0.185264474688992493E+02
    0.133667472105140295E+01    0.942811242665723270E+01   -0.697569734673640918E+00    0.935207086358733363E+03    0.833950406277394807E+00   -0.185260807333228783E+02
    0.127970334764817273E+01    0.949517067863429887E+01   -0.678557139751432503E+00    0.423616855706110755E+03    0.512537400967323364E+00   -0.185201163748257578E+02
    0.127970334764817273E+01    0.949517067863429887E+01   -0.678557139751432503E+00    0.423616855706110755E+03    0.512537400967323364E+00   -0.185201163748257578E+02
    0.128638082009431209E+01    0.949395617966023408E+01   -0.657511631461486612E+00    0.802950481226413103E+03    0.655361460963371112E+00   -0.185105794622917195E+02
    0.149781158251679503E+01    0.930920071698017537E+01   -0.553669990128621059E+00    0.542911073760793784E+03    0.424462432681264323E+00   -0.185035494487233798E+02
    0.139232016143590820E+01    0.939856107968746635E+01   -0.621524094679569927E+00    0.108404131033598969E+04    0.854806936370505754E+00   -0.184933138241089949E+02
    0.137936069538430517E+01    0.942878764373470446E+01   -0.533085973566908455E+00    0.717648629901387835E+03    0.647974305998668121E+00   -0.184845940286953443E+02
    0.127691906405807654E+01    0.949597943894248608E+01   -0.683340724062298621E+00    0.788324288013603791E+03    0.658862344066403427E+00   -0.184589154582202575E+02
    0.129554763668281270E+01    0.946764904061471668E+01   -0.707417238311769392E+00    0.802736132256097335E+03    0.938270805168857747E+00   -0.184446660898315038E+02
    0.129554763668281270E+01    0.946764904061471668E+01   -0.707417238311769392E+00    0.802736132256097335E+03    0.938270805168857747E+00   -0.184446660898315038E+02
    0.137573487092835944E+01    0.940033870170545960E+01   -0.669615352995567958E+00    0.458782245962595425E+03    0.505704065928238022E+00   -0.184396103153209410E+02
    0.122931541567837033E+01    0.955098851352974698E+01   -0.681471922429445875E+00    0.921420227592036099E+03    0.770469108949744519E+00   -0.184042060708514157E+02
    0.128121156296123329E+01    0.949217947336647860E+01   -0.680235637245689695E+00    0.986180132040698595E+03    0.834274304922680510E+00   -0.183942115272580047E+02
    0.135050595320962552E+01    0.941802971158223734E+01   -0.689099476893590968E+00    0.819494185621737984E+03    0.878822067946836927E+00   -0.183339090612383515E+02
    0.133811240358361072E+01    0.943938488411127175E+01   -0.669476531691184373E+00    0.660430965793835185E+03    0.513119189626408012E+00   -0.182971470779168008E+02
    0.133811240358361072E+01    0.943938488411127175E+01   -0.669476531691184373E+00    0.660430965793835185E+03    0.513119189626408012E+00   -0.182971470779168008E+02
    0.138334854757711478E+01    0.940486967903789761E+01   -0.608129180675740066E+00    0.325021550661873505E+03    0.276531482929300521E+00   -0.182926992901008632E+02
    0.138334854757711478E+01    0.940486967903789761E+01   -0.608129180675740066E+00    0.325021550661873505E+03    0.276531482929300521E+00   -0.182926992901008632E+02
    0.166188880851078236E+01    0.916610326996511127E+01   -0.583241168579782254E+00    0.716930938318073913E+03    0.649654174980032417E+00   -0.182620296338185923E+02
    0.166188880851078236E+01    0.916610326996511127E+01   -0.583241168579782254E+00    0.716930938318073913E+03    0.649654174980032417E+00   -0.182620296338185923E+02
    0.139244500539266913E+01    0.940272516938664182E+01   -0.590994507878159325E+00    0.812299999273810840E+03    0.741790167591255267E+00   -0.182240449833260065E+02
    0.126000485002263840E+01    0.951427129029801044E+01   -0.686822113711878401E+00    0.623821319240817161E+03    0.583964119509142399E+00   -0.182221189540685806E+02
    0.126000485002263840E+01    0.951427129029801044E+01   -0.686822113711878401E+00    0.623821319240817161E+03    0.583964119509142399E+00   -0.182221189540685806E+02
    0.130825606306475795E+01    0.946937284232023124E+01   -0.667962284011595298E+00    0.645831822016496176E+03    0.775698088377868245E+00   -0.182212231739124100E+02
    0.130825606306475795E+01    0.946937284232023124E+01   -0.667962284011595298E+00    0.645831822016496176E+03    0.775698088377868245E+00   -0.182212231739124100E+02
    0.132329043328008722E+01    0.945318788720218528E+01   -0.655890616396382464E+00    0.799418461885991974E+03    0.706025237613658097E+00   -0.182196556589324530E+02
    0.140672574739351264E+01    0.938473488943304446E+01   -0.613032459512351968E+00    0.724410957023344963E+03    0.822601615022436894E+00   -0.182194892170449378E+02
    0.146913501702899052E+01    0.934310598588600705E+01   -0.529286683496529964E+00    0.832927555865089062E+03    0.732776471020233910E+00   -0.181783456831859667E+02
    0.139053098145754062E+01    0.939473025940316120E+01   -0.643472366134805851E+00    0.964484417724764398E+03    0.807218467921725802E+00   -0.181758791917264624E+02
    0.139053098145754062E+01    0.939473025940316120E+01   -0.643472366134805851E+00    0.964484417724764398E+03    0.807218467921725802E+00   -0.181758791917264624E+02
    0.135836128513245580E+01    0.942375001570986370E+01   -0.645537392640128660E+00    0.858467791685108750E+03    0.794782684928853955E+00   -0.181688838441148093E+02
    0.135836128513245580E+01    0.942375001570986370E+01   -0.645537392640128660E+00    0.858467791685108750E+03    0.794782684928853955E+00   -0.181688838441148093E+02
    0.166972115550214406E+01    0.915426307896802349E+01   -0.639424750169419687E+00    0.746470423657845686E+03    0.742901291810096231E+00   -0.181662992021453285E+02
    0.166972115550214406E+01    0.915426307896802349E+01   -0.639424750169419687E+00    0.746470423657845686E+03    0.742901291810096231E+00   -0.181662992021453285E+02
    0.131154609049448978E+01    0.945876948020620567E+01   -0.685344484179852387E+00    0.601662076512494650E+03    0.640332165073454918E+00   -0.181608739900785494E+02
    0.132244282051367135E+01    0.946640527260887410E+01   -0.624020906207368498E+00    0.683057870959012917E+03    0.608274292173011988E+00   -0.181523833541620583E+02
    0.128528471253408427E+01    0.951896168281417765E+01   -0.533458084745462191E+00    0.859810595930672889E+03    0.904146273088206276E+00   -0.181464334664603655E+02
    0.167153428938531534E+01    0.915972774567994641E+01   -0.580145805690945426E+00    0.752752967872405520E+03    0.778993964108527503E+00   -0.181414224514921258E+02
    0.167153428938531534E+01    0.915972774567994641E+01   -0.580145805690945426E+00    0.752752967872405520E+03    0.778993964108527503E+00   -0.181414224514921258E+02
    0.132277283360308684E+01    0.944467963570144953E+01   -0.683138525520430751E+00    0.934178972198633915E+03    0.905331149405618985E+00   -0.181351760254270253E+02
    0.143075424127476714E+01    0.934611485337957504E+01   -0.681085421650920564E+00    0.612424531558516151E+03    0.532933814896513036E+00   -0.181347791454471121E+02
    0.124634221466020478E+01    0.953180473489341296E+01   -0.687771562407281323E+00    0.953955356631582617E+03    0.778537813323835759E+00   -0.181341035376391027E+02
    0.133851535122943899E+01    0.946931030112066452E+01   -0.532776609685045699E+00    0.906379372776701189E+03    0.859437077191808174E+00   -0.180952441946039926E+02
    0.146070701793921454E+01    0.933970078592556874E+01   -0.577804350363246400E+00    0.923901114191224110E+03    0.916028307498565786E+00   -0.180859535055761995E+02
    0.146070701793921454E+01    0.933970078592556874E+01   -0.577804350363246400E+00    0.923901114191224110E+03    0.916028307498565786E+00   -0.180859535055761995E+02
    0.145436753408815478E+01    0.933901862072874600E+01   -0.607033311990016866E+00    0.523490291519518109E+03    0.530457789413277148E+00   -0.180830496385868038E+02
    0.144993652251488259E+01    0.935429476944729998E+01   -0.563187135897798896E+00    0.116126663133357988E+04    0.955290813788876814E+00   -0.180732252089212331E+02
    0.134356938901495182E+01    0.942523442195192018E+01   -0.687737752036717831E+00    0.103340296714884789E+04    0.934477956299456514E+00   -0.180669567443188761E+02
    0.134356938901495182E+01    0.942523442195192018E+01   -0.687737752036717831E+00    0.103340296714884789E+04    0.934477956299456514E+00   -0.180669567443188761E+02
    0.125788013427793732E+01    0.952702506365130297E+01   -0.652513173166526794E+00    0.732989837714858481E+03    0.692350426039324174E+00   -0.180668930303803279E+02
    0.124187959553305571E+01    0.953905432383456997E+01   -0.679394258881726110E+00    0.818621675592494967E+03    0.730631149405177927E+00   -0.180615432640274598E+02
    0.124187959553305571E+01    0.953905432383456997E+01   -0.679394258881726110E+00    0.818621675592494967E+03    0.730631149405177927E+00   -0.180615432640274598E+02
    0.126823644919484524E+01    0.950402735958007305E+01   -0.695151575415588585E+00    0.838190879339130333E+03    0.723990633171682663E+00   -0.180502271693253782E+02
    0.143970384518168326E+01    0.934186886706925712E+01   -0.660159639927365927E+00    0.653298612459928449E+03    0.568750927506046278E+00   -0.180463805183672861E+02
    0.134175404952856758E+01    0.942328338193239290E+01   -0.699728261888050707E+00    0.106793268237072175E+04    0.899844510428236544E+00   -0.180432774304236609E+02
    0.127440322786434534E+01    0.948985142650701263E+01   -0.703789273857588604E+00    0.931513771479969705E+03    0.904720824671898405E+00   -0.180412551673960095E+02
    0.144989430784091966E+01    0.935496778012401542E+01   -0.558342262024461800E+00    0.562995780207629878E+03    0.446003454886496065E+00   -0.180193936100904359E+02
    0.144989430784091966E+01    0.935496778012401542E+01   -0.558342262024461800E+00    0.562995780207629878E+03    0.446003454886496065E+00   -0.180193936100904359E+02
    0.138930266087843801E+01    0.938398995045293383E+01   -0.690476912240422624E+00    0.663377394104030373E+03    0.557925331126668089E+00   -0.180172060141583010E+02
    0.138930266087843801E+01    0.938398995045293383E+01   -0.690476912240422624E+00    0.663377394104030373E+03    0.557925331126668089E+00   -0.180172060141583010E+02
    0.127555265849929267E+01    0.950411923706401396E+01   -0.669179934865098414E+00    0.101451343535991498E+04    0.848650036666779406E+00   -0.180147034883855675E+02
    0.145040009083539023E+01    0.934358430178592592E+01   -0.610738857206969854E+00    0.625237152387747074E+03    0.480990461794747692E+00   -0.180132117844398181E+02
    0.150926513884364044E+01    0.930733869023669769E+01   -0.516019983633991153E+00    0.976894256295633568E+03    0.834854199569889599E+00   -0.180077835779257995E+02
    0.128053735126513990E+01    0.949706380188561106E+01   -0.669362564495591617E+00    0.764980920130163327E+03    0.877807080893055369E+00   -0.179958702250116573E+02
    0.128053735126513990E+01    0.949706380188561106E+01   -0.669362564495591617E+00    0.764980920130163327E+03    0.877807080893055369E+00   -0.179958702250116573E+02
    0.142358926341420311E+01    0.935195141446851608E+01   -0.684501649964948111E+00    0.629927653908360980E+03    0.675051569012377506E+00   -0.179852910890207269E+02
    0.142358926341420311E+01    0.935195141446851608E+01   -0.684501649964948111E+00    0.629927653908360980E+03    0.675051569012377506E+00   -0.179852910890207269E+02
    0.164355205046959596E+01    0.916791356856025708E+01   -0.663055766228045185E+00    0.104536395058264088E+04    0.956888457633715994E+00   -0.179824913298833593E+02
    0.162413293240591328E+01    0.917791817702908652E+01   -0.691442875310071869E+00    0.832595757273779100E+03    0.894554580079287232E+00   -0.179553423891645565E+02
    0.144274756976720386E+01    0.935608631339995611E+01   -0.579787365914242958E+00    0.434869665962570878E+03    0.487488430110842752E+00   -0.179526506765971803E+02
    0.163641275472125436E+01    0.917640721549616067E+01   -0.638914535764863789E+00    0.766994858811456197E+03    0.757388506336757583E+00   -0.179461859814313556E+02
    0.140316931839557291E+01    0.938102024839793103E+01   -0.637181716293760969E+00    0.684148398998011430E+03    0.669508475262369118E+00   -0.179458760034592615E+02
    0.166762891520034739E+01    0.916015543038070668E+01   -0.573479395304596462E+00    0.835883914524547208E+03    0.773544732220548870E+00   -0.179274735192355124E+02
    0.127714598541492719E+01    0.949994200891607399E+01   -0.675057054749996777E+00    0.883214410632426507E+03    0.804638608921376841E+00   -0.179242349050659868E+02
    0.132973178564748973E+01    0.944667145659083474E+01   -0.654796947019833819E+00    0.901393485688726514E+03    0.989670185369848965E+00   -0.179011401634869998E+02
    0.134331569799430750E+01    0.942318970563953151E+01   -0.695437423006533884E+00    0.604326385644847164E+03    0.537543016801143470E+00   -0.178891931999980827E+02
    0.127812581173573858E+01    0.950119038176237929E+01   -0.670537622007812306E+00    0.577392728509383915E+03    0.474465865001677312E+00   -0.178835706398126639E+02
    0.146088765838509360E+01    0.934872694601996734E+01   -0.546737681433485889E+00    0.103953509373477800E+04    0.859152315174613324E+00   -0.178675075827625776E+02
    0.146088765838509360E+01    0.934872694601996734E+01   -0.546737681433485889E+00    0.103953509373477800E+04    0.859152315174613324E+00   -0.178675075827625776E+02
    0.126275608341940870E+01    0.951622508372792097E+01   -0.667099494569320939E+00    0.861668248632706764E+03    0.984689003692516107E+00   -0.178630194338865351E+02
    0.146347200334371697E+01    0.934474843143411071E+01   -0.548004547463752045E+00    0.702308545812281864E+03    0.677960612824398567E+00   -0.178600328713382730E+02
    0.163956406890282502E+01    0.917472433510325480E+01   -0.636221964299944265E+00    0.590574511421868010E+03    0.558898618107057432E+00   -0.178572515499116591E+02
    0.128687181698904252E+01    0.949938627782957390E+01   -0.642877409066468619E+00    0.904823805862810673E+03    0.838353022365207035E+00   -0.178553778753106123E+02
    0.141150485199288411E+01    0.939666253361867732E+01   -0.544944223129854244E+00    0.103206228298049723E+04    0.878693607229718010E+00   -0.178410035087115624E+02
    0.146472936617112959E+01    0.934462511627685721E+01   -0.539227658760666584E+00    0.743368434645194043E+03    0.630659710243179128E+00   -0.178401270193519785E+02
    0.145127798625083626E+01    0.933541714909634024E+01   -0.635574161690589445E+00    0.883762422703281345E+03    0.844746169490288357E+00   -0.178306892655117117E+02
    0.145127798625083626E+01    0.933541714909634024E+01   -0.635574161690589445E+00    0.883762422703281345E+03    0.844746169490288357E+00   -0.178306892655117117E+02
    0.126118040900181549E+01    0.954466945044801740E+01   -0.550877437883463550E+00    0.991570060475376181E+03    0.929190532804341163E+00   -0.178192684680983078E+02
    0.126394640928974367E+01    0.950176613634806344E+01   -0.706482994441865353E+00    0.100704195164423800E+04    0.976841116979577206E+00   -0.178153948354841347E+02
    0.128728618427663766E+01    0.947585821056119748E+01   -0.705760476370815404E+00    0.103076597370561785E+04    0.930286356169982342E+00   -0.178103940243152863E+02
    0.137950309932018156E+01    0.939874290330882722E+01   -0.672034902180065563E+00    0.809447611670340393E+03    0.839127738588324457E+00   -0.178000801834032742E+02
    0.166866036791259775E+01    0.915334603076331810E+01   -0.652134622804226627E+00    0.720360032025608461E+03    0.656888833734976418E+00   -0.177994806054077443E+02
    0.130507863241409705E+01    0.946919261379908583E+01   -0.681037682374615816E+00    0.729582386172492420E+03    0.725738355822262537E+00   -0.177939802586180278E+02
    0.130507863241409705E+01    0.946919261379908583E+01   -0.681037682374615816E+00    0.729582386172492420E+03    0.725738355822262537E+00   -0.177939802586180278E+02
    0.140066083130417240E+01    0.937861892845160838E+01   -0.657494901746564331E+00    0.793077848001177358E+03    0.811357601941560036E+00   -0.177925345070568603E+02
    0.130842611866826508E+01    0.947003699081540695E+01   -0.665904568111669981E+00    0.587926532482065454E+03    0.502203705115332411E+00   -0.177917086437385485E+02
    0.130842611866826508E+01    0.947003699081540695E+01   -0.665904568111669981E+00    0.587926532482065454E+03    0.502203705115332411E+00   -0.177917086437385485E+02
    0.129080568894728098E+01    0.948878633868021559E+01   -0.648624422559124447E+00    0.533038100158187262E+03    0.486342891337337990E+00   -0.177754709844031282E+02
    0.127202290493511483E+01    0.949386534364166756E+01   -0.704390537570547259E+00    0.722720385935842614E+03    0.778661490163694792E+00   -0.177671972496410007E+02
    0.135769571202813499E+01    0.942024823857086702E+01   -0.659144566977225121E+00    0.810381661804055284E+03    0.714832887103023618E+00   -0.177667838383341632E+02
    0.146632244046882687E+01    0.934691832156272540E+01   -0.524370487186786693E+00    0.701631796257151109E+03    0.760373627541743202E+00   -0.177567854742763345E+02
    0.146632244046882687E+01    0.934691832156272540E+01   -0.524370487186786693E+00    0.701631796257151109E+03    0.760373627541743202E+00   -0.177567854742763345E+02
    0.134621826036473635E+01    0.942638144945921574E+01   -0.681357129366000347E+00    0.604338809132397728E+03    0.662317106384300969E+00   -0.177499413113683033E+02
    0.128791346873906831E+01    0.949733617280531206E+01   -0.642646081678720282E+00    0.969705493733636445E+03    0.991153530127688143E+00   -0.177423605452727848E+02
    0.145146380715481849E+01    0.933628008980866042E+01   -0.630668618522187030E+00    0.500271142592248623E+03    0.460086630207154290E+00   -0.177328125823720057E+02
    0.145146380715481849E+01    0.933628008980866042E+01   -0.630668618522187030E+00    0.500271142592248623E+03    0.460086630207154290E+00   -0.177328125823720057E+02
    0.126051294767138322E+01    0.952076192347587735E+01   -0.657900381499010312E+00    0.682479374753499087E+03    0.607439374129212117E+00   -0.177141984128822862E+02
    0.166653254308802201E+01    0.915004577815627407E+01   -0.670598902405116437E+00    0.897444214997271729E+03    0.934100203594394385E+00   -0.177137314705140483E+02
    0.131369888953477232E+01    0.946116679273373684E+01   -0.675124603188366423E+00    0.102180659456425371E+04    0.960716155925531945E+00   -0.177051600388771426E+02
    0.144296180021490916E+01    0.933809632447627536E+01   -0.664007897024366134E+00    0.526165435139414853E+03    0.523279483943749013E+00   -0.176974270126915734E+02
    0.127292105159104851E+01    0.949631093554466155E+01   -0.697602032170029585E+00    0.672416624248219250E+03    0.588912323017149464E+00   -0.176906617951340337E+02
    0.127292105159104851E+01    0.949631093554466155E+01   -0.697602032170029585E+00    0.672416624248219250E+03    0.588912323017149464E+00   -0.176906617951340337E+02
    0.131374702044431335E+01    0.946504248755387856E+01   -0.666224422928414661E+00    0.938287933218709099E+03    0.840682556459383945E+00   -0.176850962793593354E+02
    0.140843924265413545E+01    0.938223307044828481E+01   -0.612896773082727719E+00    0.930309800511496178E+03    0.798467854999239668E+00   -0.176794282048818552E+02
    0.126587593596734971E+01    0.950308825787643308E+01   -0.701658750188218772E+00    0.780097455048045390E+03    0.884786886684571838E+00   -0.176793299880993438E+02
    0.146737700159258555E+01    0.934913603406360671E+01   -0.511462619848112254E+00    0.849840734917547366E+03    0.744588031034259856E+00   -0.176646751684964727E+02
    0.123879315303185367E+01    0.953627636677977542E+01   -0.697004865320157041E+00    0.955800020495853687E+03    0.940596120775192279E+00   -0.176641534188445029E+02
    0.149714280261471711E+01    0.931065560009654014E+01   -0.547202949200144229E+00    0.682949929021116986E+03    0.588275076657758134E+00   -0.176447485046461026E+02
    0.149714280261471711E+01    0.931065560009654014E+01   -0.547202949200144229E+00    0.682949929021116986E+03    0.588275076657758134E+00   -0.176447485046461026E+02
    0.129379626529090341E+01    0.946855637405050032E+01   -0.708561605017070661E+00    0.891874591125055304E+03    0.891999437117809491E+00   -0.176398137610234222E+02
    0.129379626529090341E+01    0.946855637405050032E+01   -0.708561605017070661E+00    0.891874591125055304E+03    0.891999437117809491E+00   -0.176398137610234222E+02
    0.135048745205476028E+01    0.942062667380094609E+01   -0.679399754054200944E+00    0.996172076335143856E+03    0.926017499881236383E+00   -0.176299821687235969E+02
    0.148693292975564351E+01    0.931174079116234665E+01   -0.584775964817922489E+00    0.546547909573300444E+03    0.466954407171294605E+00   -0.176295616540096631E+02
    0.148693292975564351E+01    0.931174079116234665E+01   -0.584775964817922489E+00    0.546547909573300444E+03    0.466954407171294605E+00   -0.176295616540096631E+02
    0.132824824121540597E+01    0.946439912361916846E+01   -0.602879698507605255E+00    0.965524488970561947E+03    0.950337763956281001E+00   -0.176257406845325058E+02
    0.132824824121540597E+01    0.946439912361916846E+01   -0.602879698507605255E+00    0.965524488970561947E+03    0.950337763956281001E+00   -0.176257406845325058E+02
    0.141191128693665280E+01    0.939044581990746607E+01   -0.572991829098408179E+00    0.773256010852328359E+03    0.721641478478459275E+00   -0.176240508863453478E+02
    0.121368559045018332E+01    0.958010412043557302E+01   -0.646173000367105566E+00    0.112074121047400467E+04    0.929431189111910694E+00   -0.176179547813301056E+02
    0.134318310981188360E+01    0.943099300524052353E+01   -0.679402226918718766E+00    0.908395458055093513E+03    0.924874071131911890E+00   -0.176117602626527479E+02
    0.130016142866852169E+01    0.946936155539990310E+01   -0.690586406334938285E+00    0.716871405406086978E+03    0.731061412448792969E+00   -0.176030985113754568E+02
    0.127450956983741492E+01    0.951344291987023638E+01   -0.633893904176569212E+00    0.776418465035557006E+03    0.644981421598151194E+00   -0.175941674010269580E+02
    0.131552095596198781E+01    0.946645183776479193E+01   -0.652171071252530821E+00    0.871456001659503841E+03    0.778187229693509064E+00   -0.175888255151911963E+02
    0.132646448514783599E+01    0.944706916491974447E+01   -0.661386197747168003E+00    0.914954719722996060E+03    0.778167291649518811E+00   -0.175728518472312594E+02
    0.132817820605686321E+01    0.943615638256463996E+01   -0.700569230730643255E+00    0.940489112196682072E+03    0.864011090009274341E+00   -0.175539856481953400E+02
    0.132817820605686321E+01    0.943615638256463996E+01   -0.700569230730643255E+00    0.940489112196682072E+03    0.864011090009274341E+00   -0.175539856481953400E+02
    0.146347455424847528E+01    0.934122389613422577E+01   -0.555147947816606147E+00    0.685384950183800811E+03    0.681775624905171296E+00   -0.175492325246152419E+02
    0.127267421373108092E+01    0.950947653541541804E+01   -0.665433929088578235E+00    0.549706354697828715E+03    0.552108294878062456E+00   -0.175454576853153448E+02
    0.127285705459139087E+01    0.951291667904772886E+01   -0.646611276928731549E+00    0.788248806337744554E+03    0.854748250246459063E+00   -0.175294630038904309E+02
    0.144451574744402511E+01    0.935579331815840121E+01   -0.574484653148563229E+00    0.102485313498466235E+04    0.855267341765242772E+00   -0.175101485351567447E+02
    0.166872725104985808E+01    0.915303531547284344E+01   -0.649186513282259403E+00    0.777204348301925165E+03    0.762261623187411197E+00   -0.175014827287424026E+02
    0.166872725104985808E+01    0.915303531547284344E+01   -0.649186513282259403E+00    0.777204348301925165E+03    0.762261623187411197E+00   -0.175014827287424026E+02
    0.129568739720354853E+01    0.947207323402762569E+01   -0.697735420184423916E+00    0.774405125840901405E+03    0.857475732009604252E+00   -0.174984850537282064E+02
    0.129568739720354853E+01    0.947207323402762569E+01   -0.697735420184423916E+00    0.774405125840901405E+03    0.857475732009604252E+00   -0.174984850537282064E+02
    0.132536405305638905E+01    0.944126837422107990E+01   -0.692152965252957442E+00    0.675925893275806288E+03    0.639122378620071485E+00   -0.174973362058976143E+02
    0.165174333616623903E+01    0.916821688717928218E+01   -0.621296148183684060E+00    0.103037954892135417E+04    0.957447978803839916E+00   -0.174915829081401313E+02
    0.129736807216360095E+01    0.947104729500237141E+01   -0.696177307694680669E+00    0.730849259921235330E+03    0.674074449604205705E+00   -0.174838537842469748E+02
    0.124927914880609814E+01    0.953128677480035158E+01   -0.678853452337436103E+00    0.973902383200397026E+03    0.856721050201790790E+00   -0.174798577664361403E+02
    0.130929191435844494E+01    0.947859122940899645E+01   -0.626783499038302772E+00    0.736635714244787209E+03    0.602322013140880186E+00   -0.174791929458457567E+02
    0.118388472774245890E+01    0.962624181601126594E+01   -0.603447371663925480E+00    0.109988932810582014E+04    0.923771073286973277E+00   -0.174788245830764026E+02
    0.132258822730002690E+01    0.945754222809964062E+01   -0.647120174338853049E+00    0.652381627583781096E+03    0.657355950659389676E+00   -0.174693678808260984E+02
    0.135596026870772923E+01    0.942170255974007986E+01   -0.661270026124390231E+00    0.650222621944321077E+03    0.678388733967264956E+00   -0.174616530741545226E+02
    0.145464103258547572E+01    0.934005150468090761E+01   -0.604475416675034571E+00    0.951980448705928325E+03    0.794649796653769114E+00   -0.174439816765384492E+02
    0.145464103258547572E+01    0.934005150468090761E+01   -0.604475416675034571E+00    0.951980448705928325E+03    0.794649796653769114E+00   -0.174439816765384492E+02
    0.135181594845897757E+01    0.942697201340188506E+01   -0.662155966170251409E+00    0.608758355553781143E+03    0.554831310930975707E+00   -0.174438701811054031E+02
    0.128950674250161690E+01    0.947651805936134295E+01   -0.700392186945691719E+00    0.889452806388864246E+03    0.917428257322919993E+00   -0.174421141775304811E+02
    0.131131039740732036E+01    0.947401690850492528E+01   -0.643489831291496728E+00    0.734448156609637863E+03    0.657616914840832401E+00   -0.174338719329743981E+02
    0.131131039740732036E+01    0.947401690850492528E+01   -0.643489831291496728E+00    0.734448156609637863E+03    0.657616914840832401E+00   -0.174338719329743981E+02
    0.127184130649311822E+01    0.949583182995105624E+01   -0.699272405821369070E+00    0.931135437500822150E+03    0.931023318264720845E+00   -0.174336811456395395E+02
    0.134186649653062018E+01    0.943064640589258829E+01   -0.681566677857587733E+00    0.768418939452250470E+03    0.676768336723573616E+00   -0.174140353902825247E+02
    0.127358276897400402E+01    0.949676031398985465E+01   -0.696814736839545645E+00    0.892430095155971230E+03    0.863524586621715162E+00   -0.174138904017991223E+02
    0.131233863610549162E+01    0.945850231743137115E+01   -0.682596707076500220E+00    0.886679896934964972E+03    0.791009899622419743E+00   -0.174126012270949637E+02
    0.129316093548999200E+01    0.947273997188953487E+01   -0.701380353849863081E+00    0.865647028299587532E+03    0.958141385038366211E+00   -0.173982897347600947E+02
    0.151285210926103386E+01    0.928533610389220421E+01   -0.597988722396995964E+00    0.105216306753644540E+04    0.977201153789159171E+00   -0.173949088711699993E+02
    0.134766497298700916E+01    0.943302412616109365E+01   -0.656806245002462763E+00    0.671419121628359335E+03    0.631627340053433795E+00   -0.173910419186602390E+02
    0.125909871989381794E+01    0.951094699486754713E+01   -0.703229732180133293E+00    0.894882353296926112E+03    0.943173574444794438E+00   -0.173780684487649779E+02
    0.125909871989381794E+01    0.951094699486754713E+01   -0.703229732180133293E+00    0.894882353296926112E+03    0.943173574444794438E+00   -0.173780684487649779E+02
    0.129810867157437171E+01    0.946985733989354728E+01   -0.698192198756478977E+00    0.934141884116503093E+03    0.945334013360717984E+00   -0.173612470213597980E+02
    0.139544522038942498E+01    0.939305078762703971E+01   -0.630481248471241873E+00    0.918061135628213719E+03    0.839573667986587169E+00   -0.173612156786649763E+02
    0.134856711959502951E+01    0.942492564391180920E+01   -0.678034480816257279E+00    0.106747487037500764E+04    0.922096032431762080E+00   -0.173570620487045844E+02
    0.146328494948951615E+01    0.934399990185492868E+01   -0.550258151843634691E+00    0.704392707563264707E+03    0.735993214029604714E+00   -0.173546671286736540E+02
    0.165606548262130326E+01    0.915945794216180076E+01   -0.659076338380300664E+00    0.857516069774358812E+03    0.819993641912620252E+00   -0.173505090939354396E+02
    0.126936997350347158E+01    0.949725712835306979E+01   -0.704769124865442853E+00    0.857852054487450573E+03    0.806782144307960691E+00   -0.173309771476474701E+02
    0.126742141490369598E+01    0.951056246601723920E+01   -0.677243904514409856E+00    0.749489886075166623E+03    0.787017370689301554E+00   -0.173248742547762156E+02
    0.149282108046519069E+01    0.931097380533759811E+01   -0.564433169173339078E+00    0.667773185957172473E+03    0.634021181053973648E+00   -0.173231177392603364E+02
    0.128053835831551210E+01    0.949499968217123680E+01   -0.674699900558564991E+00    0.678217890985497547E+03    0.719332852799063338E+00   -0.173149175333635981E+02
    0.134294418653220649E+01    0.942943811643468699E+01   -0.682266748992703453E+00    0.716004422826153018E+03    0.763279472133051584E+00   -0.173127291325180472E+02
    0.135028823674067899E+01    0.942381790569825561E+01   -0.675050737646087029E+00    0.718289865758257065E+03    0.643838759873588296E+00   -0.173026084474423207E+02
    0.141508433174619541E+01    0.939794292565072986E+01   -0.524073571515744518E+00    0.810617946001926157E+03    0.730544941588560426E+00   -0.172978038440362418E+02
    0.150211691137437997E+01    0.930480446046285259E+01   -0.562050772003490406E+00    0.860618806307577074E+03    0.785025513321130131E+00   -0.172910910484903440E+02
    0.126394253755678010E+01    0.950776470482381875E+01   -0.696529555147970658E+00    0.110222243859222613E+04    0.966370856051596894E+00   -0.172876917424611847E+02
    0.123364619946394272E+01    0.955651259852194102E+01   -0.645088131455126668E+00    0.959831970438290114E+03    0.852681456036897822E+00   -0.172849084352817997E+02
    0.124278866522943021E+01    0.953413199626132446E+01   -0.690669905150353536E+00    0.971725513144373394E+03    0.998371909065052687E+00   -0.172756898615182131E+02
    0.134075999157959047E+01    0.943943534969902132E+01   -0.662535824411587537E+00    0.986170879103727771E+03    0.976719417836166226E+00   -0.172737257278142060E+02
    0.127450997687458711E+01    0.950228764239361823E+01   -0.680165329076321434E+00    0.101178522499505925E+04    0.889305984275022610E+00   -0.172721111018138735E+02
    0.124304537496397671E+01    0.954416052059090880E+01   -0.662549303949047097E+00    0.978444607227348570E+03    0.881873495174696931E+00   -0.172680047207419420E+02
    0.126643004335404319E+01    0.950476117497634121E+01   -0.696094782670821033E+00    0.903847275268429712E+03    0.812393877342654003E+00   -0.172557988809499037E+02
    0.129811634316552671E+01    0.947511119423154646E+01   -0.684543028717415680E+00    0.732188042325093761E+03    0.740860300144158490E+00   -0.172524852622091345E+02
    0.127332110140139920E+01    0.949906646695897550E+01   -0.692967149165736540E+00    0.973258811433550818E+03    0.904800941953741278E+00   -0.172447514207544437E+02
    0.123792597839133323E+01    0.954959553904138936E+01   -0.644325224303750499E+00    0.780649581032555830E+03    0.801796307075436809E+00   -0.172395839682284269E+02
    0.130986016872380917E+01    0.945825505195702476E+01   -0.689072510348961220E+00    0.998255443814338832E+03    0.902366703751712351E+00   -0.172356700052584593E+02
    0.127057666180392004E+01    0.952008840879696550E+01   -0.594818930645200750E+00    0.831901090874755710E+03    0.822482978344976856E+00   -0.172335211720968147E+02
    0.130336511900134977E+01    0.946850943606432160E+01   -0.686903712694477253E+00    0.912301779044385626E+03    0.980891046220309759E+00   -0.172281109837450401E+02
    0.123300246035033090E+01    0.954174395817195808E+01   -0.701794634072078871E+00    0.801033426957361598E+03    0.851738956609403797E+00   -0.172104528201617413E+02
    0.124821577702604625E+01    0.952800552087127173E+01   -0.685795675601794663E+00    0.844563404385998751E+03    0.888785146600261866E+00   -0.172097476197072332E+02
    0.133001544406402039E+01    0.945010680206096509E+01   -0.638989306175244076E+00    0.668940842059225588E+03    0.586881700789094740E+00   -0.172034253734878462E+02
    0.133936800675079226E+01    0.942468632575614329E+01   -0.701005729355564933E+00    0.834484654510250834E+03    0.799170195127134608E+00   -0.172016244245545380E+02
    0.124429351090489959E+01    0.953019436047311608E+01   -0.695736141105376404E+00    0.818113837052236704E+03    0.778869128597408977E+00   -0.171967688966880097E+02
    0.132783889885479423E+01    0.944953554963809239E+01   -0.649552011761107995E+00    0.102567460043208530E+04    0.938374950224140192E+00   -0.171937877289029046E+02
    0.133917190283560306E+01    0.942366754548810093E+01   -0.702598350005184447E+00    0.999002881511035980E+03    0.951445135289213484E+00   -0.171826247428724379E+02
    0.122104601124386059E+01    0.955690830703171201E+01   -0.696113044751883070E+00    0.933828851353828099E+03    0.877319869935911600E+00   -0.171772313568723760E+02
    0.130268520660082832E+01    0.946529938369212687E+01   -0.694064327425736538E+00    0.819949533814235110E+03    0.823514649324815773E+00   -0.171766075144559416E+02
    0.130533357058461985E+01    0.946331513103076638E+01   -0.692307736049959876E+00    0.832195629943754739E+03    0.885813545438797201E+00   -0.171457622683802668E+02
    0.122461885586065300E+01    0.956585850710112950E+01   -0.654600524287917374E+00    0.100397605317482805E+04    0.859791713318346362E+00   -0.171375615668016898E+02
    0.131282669053782852E+01    0.946261182393781830E+01   -0.671499320217230800E+00    0.818488563167973552E+03    0.906216884745728812E+00   -0.171371820585642354E+02
    0.126112191811014029E+01    0.951000011520923749E+01   -0.699500291504444593E+00    0.103833109721727988E+04    0.937300413194002591E+00   -0.171306256055031589E+02
    0.121917354350262852E+01    0.958123723567211805E+01   -0.599998697276889370E+00    0.101584401156690808E+04    0.878766242109146667E+00   -0.171291273884460615E+02
    0.126107585581769577E+01    0.951405084012942126E+01   -0.683269742712004913E+00    0.682651877814831550E+03    0.668771531630957150E+00   -0.171082602180486845E+02
    0.134112613324121099E+01    0.943351813121274851E+01   -0.676369632661238063E+00    0.869269871363670063E+03    0.960745105756117379E+00   -0.170966823260079117E+02
    0.126122094021216946E+01    0.951280269934607325E+01   -0.687600324448571110E+00    0.773618518157778567E+03    0.779600264305951640E+00   -0.170947879499883477E+02
    0.131396371179460703E+01    0.948114644096095915E+01   -0.583467930993036621E+00    0.747176213747805946E+03    0.837340881557480543E+00   -0.170931904865992905E+02
    0.139788726935348451E+01    0.939446771520749202E+01   -0.612160682929164368E+00    0.735026032965217382E+03    0.822277554931733379E+00   -0.170874486701528916E+02
    0.126990646569498566E+01    0.949832840802250011E+01   -0.703744156038367485E+00    0.896367998615863257E+03    0.917744441941769518E+00   -0.170801921327287545E+02
    0.134022985047233489E+01    0.942276261386818703E+01   -0.702218786702849318E+00    0.987873569755009157E+03    0.975492368576419855E+00   -0.170783892596304199E+02
    0.127888658374537534E+01    0.949605368064010058E+01   -0.680445097663755050E+00    0.804329832317431169E+03    0.800807925214838123E+00   -0.170696035591261968E+02
    0.127450859897792523E+01    0.949390922857692310E+01   -0.697375234476456107E+00    0.899990501200443418E+03    0.875482464870472099E+00   -0.170689271598552956E+02
    0.119673761064758510E+01    0.960674136770598786E+01   -0.619290814007555479E+00    0.978331216961924156E+03    0.919984321584506270E+00   -0.170484778103640835E+02
    0.125766788497935456E+01    0.951149987482783565E+01   -0.704490400241220005E+00    0.862904061873658293E+03    0.863071327688513801E+00   -0.170416700359335884E+02
    0.135148564239839986E+01    0.942482996028234332E+01   -0.670757980371188278E+00    0.889117984320249661E+03    0.949944943585911084E+00   -0.170372191740226384E+02
    0.124371205835523146E+01    0.953006470725417465E+01   -0.698234811343638295E+00    0.102884335110107008E+04    0.932354460727618517E+00   -0.170284551967683058E+02
    0.127701019240272018E+01    0.950541583300770654E+01   -0.662673150846345482E+00    0.703289903285425680E+03    0.698367083942263656E+00   -0.169940275280125057E+02
    0.128619721623659089E+01    0.951416447129210674E+01   -0.557067746974630129E+00    0.846768867086906653E+03    0.903072397115365244E+00   -0.169823992127842232E+02
    0.128309196903334710E+01    0.949654391457706737E+01   -0.662239757864538703E+00    0.680661861925095536E+03    0.690937134637081396E+00   -0.169674882784445131E+02
    0.126468346741442073E+01    0.952453347941134787E+01   -0.618950237096701938E+00    0.729023285415233659E+03    0.619531120909510791E+00   -0.169624311043604692E+02
    0.131460648206793973E+01    0.946382536227202564E+01   -0.666025183745160732E+00    0.978729730531406176E+03    0.993234888762253965E+00   -0.169454316716940241E+02
    0.138927668178782326E+01    0.939208128287346788E+01   -0.660430690412750820E+00    0.104672899966541627E+04    0.934272344202018878E+00   -0.169407441933628320E+02
    0.131382596079891378E+01    0.946336032048812470E+01   -0.665629469419332986E+00    0.102728981804617388E+04    0.958371100615382332E+00   -0.169365098582961693E+02
    0.132348942049523233E+01    0.946477467125311023E+01   -0.625143600761268292E+00    0.644014031781331028E+03    0.587040040486963788E+00   -0.169350633124971495E+02
    0.125184683190783086E+01    0.953040832243073410E+01   -0.670848966507513467E+00    0.947258969816675631E+03    0.930232308985753820E+00   -0.169304162888625562E+02
    0.123230597307047418E+01    0.954749289383192412E+01   -0.680405241921539394E+00    0.844638350592815982E+03    0.864222942388716886E+00   -0.169283885561624956E+02
    0.124267798273501273E+01    0.955189034330488695E+01   -0.602042538105490799E+00    0.111954432887890516E+04    0.981615866347895216E+00   -0.169208652982747587E+02
    0.144781891940312502E+01    0.934707128576794588E+01   -0.606187247025615550E+00    0.113679610500495551E+04    0.990851023389197061E+00   -0.169181257988300153E+02
    0.121773845767302547E+01    0.957601735824352041E+01   -0.640161101594038717E+00    0.893249683162372094E+03    0.797130770422393220E+00   -0.169101927130263086E+02
    0.128078757564464119E+01    0.949636667057742123E+01   -0.671977219917293978E+00    0.717589817076595068E+03    0.732965658094798966E+00   -0.169091108863201356E+02
    0.124938876134510779E+01    0.953343574285615958E+01   -0.672301609057130545E+00    0.109976850783072541E+04    0.970339734891747741E+00   -0.169037433090680089E+02
    0.129232929299084365E+01    0.947365856729035727E+01   -0.700720065177211193E+00    0.104287641727655796E+04    0.986139137927588560E+00   -0.169011991869102012E+02
    0.125925636406155372E+01    0.952247518415025951E+01   -0.654740527154089369E+00    0.866138033474408644E+03    0.856438902827980186E+00   -0.168870063639773491E+02
    0.126261411519949851E+01    0.950917614077494733E+01   -0.696352783016059185E+00    0.854532607529241204E+03    0.834412655560252015E+00   -0.168865902224508915E+02
    0.123275346124562057E+01    0.955423359076312018E+01   -0.655271624095608907E+00    0.777475059939649213E+03    0.695633345308344198E+00   -0.168797743540793412E+02
    0.140541789594144295E+01    0.939115497619512318E+01   -0.592404055445324929E+00    0.990929332914976385E+03    0.947318644949731614E+00   -0.168789439657986335E+02
    0.127955319372795118E+01    0.949797450906265617E+01   -0.671960579781471390E+00    0.102147359091448243E+04    0.916204859254619253E+00   -0.168788696731311987E+02
    0.125018641996722568E+01    0.953887528946062702E+01   -0.642875672132239284E+00    0.105076114660644112E+04    0.912902799535774800E+00   -0.168784682654795830E+02
    0.129399099967629594E+01    0.946967869630662840E+01   -0.706068357205652974E+00    0.100593718941942507E+04    0.981789850367977390E+00   -0.168764411091567688E+02
    0.149740250223924454E+01    0.930694027218429021E+01   -0.567593092408370747E+00    0.924148167759836383E+03    0.885057866484315725E+00   -0.168758644523444268E+02
    0.124454666340071607E+01    0.954059076024367592E+01   -0.668517532237909995E+00    0.863473899152612375E+03    0.816835594204892268E+00   -0.168587096952840625E+02
    0.122706918045488678E+01    0.956285432889486131E+01   -0.660093636512886883E+00    0.964408713517134061E+03    0.859072462548041260E+00   -0.168484222439859579E+02
    0.123204272014875871E+01    0.955817144786738737E+01   -0.648094331473646257E+00    0.665934403257749750E+03    0.707464130918667222E+00   -0.168373448829515766E+02
    0.135341296978699344E+01    0.942902476660705169E+01   -0.650224249056903236E+00    0.848902753126654602E+03    0.893348887527184221E+00   -0.168353606767101169E+02
    0.129082848099378844E+01    0.948728726401283673E+01   -0.655869420467652953E+00    0.759605300761556464E+03    0.752888959598908447E+00   -0.168319966445505962E+02
    0.124718483931923796E+01    0.953470582290451851E+01   -0.676049314955769365E+00    0.769087681323953802E+03    0.754119844499617775E+00   -0.168218365133077903E+02
    0.122499142703391173E+01    0.957268461983824537E+01   -0.610461408874699352E+00    0.879264695887537982E+03    0.781146585231101920E+00   -0.168193261567625569E+02
    0.132613862889503742E+01    0.945096921335914253E+01   -0.649235657262515975E+00    0.967134674065123249E+03    0.925860413803396565E+00   -0.168033244694864798E+02
    0.131028645382634967E+01    0.948259589083980892E+01   -0.580257688729717502E+00    0.873461576683322392E+03    0.878782167397967440E+00   -0.165401667672987216E+02
    0.139487538547794676E+01    0.940203876785835391E+01   -0.583795129231662990E+00    0.859081273540490884E+03    0.815415684459697809E+00   -0.167424136111264978E+02
    0.145512102709390900E+01    0.934204112453843649E+01   -0.598632452192242148E+00    0.787636227117724843E+03    0.805785441810328740E+00   -0.167431562968812671E+02
    0.145513657065800772E+01    0.935504861442388425E+01   -0.536785503719703350E+00    0.843028581234626813E+03    0.830328758845803927E+00   -0.167324541500047488E+02
    0.139958116128944776E+01    0.938670884133519223E+01   -0.639607527472606296E+00    0.799253479840723799E+03    0.851805141343156880E+00   -0.166689713587579860E+02
    0.129623732582359130E+01    0.948058613002288197E+01   -0.655383915852215448E+00    0.855735641706429874E+03    0.837813952814473129E+00   -0.164545446540370826E+02
    0.127966566279668204E+01    0.949421899713118655E+01   -0.680034891884229831E+00    0.888909641999312498E+03    0.858308916411403500E+00   -0.167947423209096911E+02
    0.127710645905243325E+01    0.950458508993242468E+01   -0.663306580793504352E+00    0.798489240975970574E+03    0.815803957839138949E+00   -0.167345106192957083E+02
    0.131784992130732337E+01    0.946317174043965359E+01   -0.654613510642348739E+00    0.874322834970137933E+03    0.884907507155060280E+00   -0.166044959118688098E+02
    0.126929056899727488E+01    0.950650097752911805E+01   -0.684371803263847500E+00    0.910835594768683677E+03    0.878752546328574580E+00   -0.167172450970765105E+02
    0.130885773118482440E+01    0.947420635824329160E+01   -0.653010963914018028E+00    0.859514077616012628E+03    0.860111602498809802E+00   -0.163845910965178838E+02
    0.129996551047749831E+01    0.947912973027915129E+01   -0.650937873618288698E+00    0.853934135301683455E+03    0.851527513881094045E+00   -0.165653851663478626E+02
    0.128911331931176454E+01    0.950768806458749438E+01   -0.591079407477705709E+00    0.844793763266274595E+03    0.870288459878581833E+00   -0.163533115982019233E+02
    0.132970977145155067E+01    0.945185089986241778E+01   -0.635960537484709043E+00    0.755629086653704690E+03    0.766227643167967987E+00   -0.167954829717958702E+02
    0.123310225310548582E+01    0.954988895552231654E+01   -0.668667525374761595E+00    0.806361864455119189E+03    0.860283708899284294E+00   -0.166589498254982900E+02
    0.122497844636655295E+01    0.956198997137498097E+01   -0.671436524394069867E+00    0.927698780146784088E+03    0.879038968828865230E+00   -0.164474296987326909E+02
    0.122096472983655291E+01    0.956902569316847718E+01   -0.662618196555673666E+00    0.890758891589721998E+03    0.863008741519825207E+00   -0.164824521085167000E+02
    0.122162736548696715E+01    0.956781607809690726E+01   -0.664751911777905935E+00    0.890190966992316589E+03    0.854376457940542511E+00   -0.164434217315280904E+02
    0.126984865433556449E+01    0.952758744053001472E+01   -0.581594836893860823E+00    0.856766798996836656E+03    0.832935638585655114E+00   -0.162857874197582539E+02
    0.121028471686409689E+01    0.958088905876105024E+01   -0.659052550637654333E+00    0.801490948487179253E+03    0.833527156401158154E+00   -0.163747781484753219E+02
    0.121157080287151064E+01    0.958983570108767935E+01   -0.625656763379420777E+00    0.899916953099434636E+03    0.795647415674573977E+00   -0.166285078539197926E+02
    0.121526235102908053E+01    0.957477968922676936E+01   -0.664511501700745466E+00    0.816001461720535190E+03    0.830339062207972267E+00   -0.166378884989492413E+02
    0.123049672094671458E+01    0.956184318110476106E+01   -0.646053253621355017E+00    0.797361643798533009E+03    0.796597846535640586E+00   -0.163917278427722941E+02
    0.121460122240194357E+01    0.958245204257399230E+01   -0.631299815147681631E+00    0.842762100036015568E+03    0.726836770749460848E+00   -0.167533965546062866E+02
    0.123289236182443696E+01    0.955801953207868671E+01   -0.643390613299636094E+00    0.905209829324533189E+03    0.821770803246900661E+00   -0.164413228880060736E+02
    0.123502300413289468E+01    0.955782952489507842E+01   -0.632067406928806808E+00    0.920493596344997627E+03    0.797785047498339783E+00   -0.167079928010423338E+02
    0.120963374146712344E+01    0.958901215455253819E+01   -0.638076849286963288E+00    0.936543392029793381E+03    0.842707727842853416E+00   -0.165679035103247294E+02
    0.126810189539072748E+01    0.952741381364027262E+01   -0.594055750220765511E+00    0.925331863032054798E+03    0.883622260427979089E+00   -0.160365280883700017E+02
    0.126810189539072748E+01    0.952741381364027262E+01   -0.594055750220765511E+00    0.925331863032054798E+03    0.883622260427979089E+00   -0.160365280883700017E+02
    0.122663891792641611E+01    0.957015617257884266E+01   -0.614658415735787722E+00    0.937219536149945952E+03    0.871475693984824273E+00   -0.163517036358578238E+02
    0.122200690802866707E+01    0.957114651689497009E+01   -0.641988069511106652E+00    0.993914018848734145E+03    0.883796917366974411E+00   -0.167112645873225425E+02
    0.124292050869260651E+01    0.955474756189859953E+01   -0.589670945134119773E+00    0.950051770159464922E+03    0.873267770179487979E+00   -0.164902402352625437E+02
    0.123409434239953963E+01    0.957167468960606627E+01   -0.579288696607981990E+00    0.916168161535440049E+03    0.910101171128366526E+00   -0.164622766696296132E+02
    0.123940118396110033E+01    0.956029662200177732E+01   -0.595005217412849507E+00    0.877881312471798310E+03    0.869297924670953348E+00   -0.160598920446608737E+02
    0.128985632085751711E+01    0.950333690650119145E+01   -0.614918537199659720E+00    0.105785053126428602E+04    0.976074009664223530E+00   -0.162339236293956866E+02
    0.128983693586921055E+01    0.950787294619123813E+01   -0.586388057962665687E+00    0.988238530442721526E+03    0.977451160167607691E+00   -0.161511212226652887E+02
    0.125808867014190606E+01    0.953912588624246993E+01   -0.603017842456068820E+00    0.105927993297033163E+04    0.996490071686334966E+00   -0.159207240789515563E+02
    0.125808867014190606E+01    0.953912588624246993E+01   -0.603017842456068820E+00    0.105927993297033163E+04    0.996490071686334966E+00   -0.159207240789515563E+02
    0.128149657823850505E+01    0.951561987122700614E+01   -0.580412147975326587E+00    0.100008403683425252E+04    0.989896077849092615E+00   -0.166392623244997111E+02
    0.126988097315998472E+01    0.952188389399038115E+01   -0.595333536559834897E+00    0.102786345532238147E+04    0.942373989415422164E+00   -0.161829543127714750E+02
    0.126988097315998472E+01    0.952188389399038115E+01   -0.595333536559834897E+00    0.102786345532238147E+04    0.942373989415422164E+00   -0.161829543127714750E+02
    0.129003530141482736E+01    0.950613633180376816E+01   -0.598322972707810319E+00    0.104239473500014901E+04    0.986711910294652439E+00   -0.158903829725383119E+02
    0.129003530141482736E+01    0.950613633180376816E+01   -0.598322972707810319E+00    0.104239473500014901E+04    0.986711910294652439E+00   -0.158903829725383119E+02
    0.128177804184683009E+01    0.950843462658602689E+01   -0.622448643774901278E+00    0.108925295059499194E+04    0.962333120964120048E+00   -0.165323817254300245E+02
    0.132470790979380504E+01    0.947189385369614456E+01   -0.588943486504498015E+00    0.101983218924075584E+04    0.996950683323439391E+00   -0.161511027204458202E+02
    0.132470790979380504E+01    0.947189385369614456E+01   -0.588943486504498015E+00    0.101983218924075584E+04    0.996950683323439391E+00   -0.161511027204458202E+02
    0.132310808782308453E+01    0.947437328978485560E+01   -0.577791531442948925E+00    0.959901182902736082E+03    0.921482930424442404E+00   -0.161629975882489560E+02
    0.132310808782308453E+01    0.947437328978485560E+01   -0.577791531442948925E+00    0.959901182902736082E+03    0.921482930424442404E+00   -0.161629975882489560E+02
    0.123940750275791145E+01    0.956000849658938101E+01   -0.595125898500984629E+00    0.107592781726776229E+04    0.986428398425206021E+00   -0.158927601447736571E+02
    0.129982711476730373E+01    0.949843253238394247E+01   -0.569707091504067176E+00    0.917914184862247112E+03    0.949621401967036594E+00   -0.161454209112581850E+02
    0.130917089021133104E+01    0.948246881881457071E+01   -0.584767189240612995E+00    0.979912547806695329E+03    0.941057685825092527E+00   -0.164459995993600820E+02
    0.126710422171550063E+01    0.952469429624473918E+01   -0.608998829508116568E+00    0.101001703453080438E+04    0.928456779322654580E+00   -0.161002602205140803E+02
    0.130485823560127678E+01    0.947896327790044602E+01   -0.638816045763239693E+00    0.911948744905503872E+03    0.911491519641504988E+00   -0.165054339117953077E+02
    0.133559303214564928E+01    0.944274141231024622E+01   -0.639111246744280992E+00    0.919710923051158147E+03    0.974511882024317155E+00   -0.167261886713150432E+02
    0.135895207757163750E+01    0.942353659696398616E+01   -0.645771561013656736E+00    0.102700210356027537E+04    0.946242499882966603E+00   -0.166178417001547700E+02
    0.135722721229116283E+01    0.942409618090348111E+01   -0.651666306548771335E+00    0.843498227863154057E+03    0.886973861224404692E+00   -0.166186324990808032E+02
    0.126387453852361142E+01    0.951263843188901603E+01   -0.678105404596708983E+00    0.106271668558698252E+04    0.963507060691912609E+00   -0.167816674398622538E+02
    0.126299871335351233E+01    0.951722308922501448E+01   -0.660316188550265970E+00    0.111567996257415666E+04    0.997462510098312771E+00   -0.166775198983255883E+02
    0.128627247366354980E+01    0.949706660711702888E+01   -0.647127365136737076E+00    0.104114116366219946E+04    0.969735443421411158E+00   -0.163321130201639875E+02
    0.128538358710839118E+01    0.949688447418495052E+01   -0.652434191879990522E+00    0.106659330391103936E+04    0.986006688677949938E+00   -0.162487039338767687E+02
    0.129500648446179856E+01    0.948010613555382520E+01   -0.665152096518558889E+00    0.102409123180945494E+04    0.987399688287618815E+00   -0.165842031496481326E+02
    0.129017960447897817E+01    0.948659414552436075E+01   -0.659509154822710553E+00    0.991571241828209395E+03    0.994210230947697227E+00   -0.161657681423958266E+02
    0.133138325795800871E+01    0.943616789775699516E+01   -0.695019787039389492E+00    0.959105445327219741E+03    0.975356102247938450E+00   -0.167198638390319054E+02
    0.130999896183186859E+01    0.946770987936553965E+01   -0.668105760681099614E+00    0.929887268432573137E+03    0.923179251150265778E+00   -0.164214549177485267E+02
    0.131904996340248681E+01    0.946213208545788653E+01   -0.651910579521167488E+00    0.974821956580104256E+03    0.958050800635006250E+00   -0.163277237040739749E+02
    0.127367369345198700E+01    0.950815714623445452E+01   -0.664411220235714861E+00    0.966002605352748446E+03    0.991199463976633499E+00   -0.163571959084662559E+02
    0.129675124738723313E+01    0.947942505450237860E+01   -0.657287036833951177E+00    0.102901970846378549E+04    0.972378318006912101E+00   -0.162887474620132231E+02
    0.130011117130742582E+01    0.947462127380415886E+01   -0.679372024888416970E+00    0.100894340306678248E+04    0.977054216854347013E+00   -0.164391817784758949E+02
    0.131587891609594743E+01    0.946193854233826137E+01   -0.664620359874735778E+00    0.963005688762583645E+03    0.980428449854255590E+00   -0.165246154413306989E+02
    0.126705645441694870E+01    0.950416327300053432E+01   -0.696918853164292473E+00    0.995637239303713159E+03    0.982914118745120913E+00   -0.166065554155809885E+02
    0.126923694026417078E+01    0.951082798968578835E+01   -0.672417819037270492E+00    0.928308134393540740E+03    0.966166917006684778E+00   -0.165219534052477073E+02
    0.124583029654299038E+01    0.953845045806920311E+01   -0.670288340013198702E+00    0.965882681458287038E+03    0.906691562550723029E+00   -0.166264950727618910E+02
    0.123076092661987024E+01    0.955081893605336596E+01   -0.676019992946623738E+00    0.998939355125039697E+03    0.995421821533923001E+00   -0.165214221401188119E+02
    0.124307390697768105E+01    0.954293566794204651E+01   -0.666131998635647316E+00    0.956380927358697477E+03    0.949624821747170667E+00   -0.163299429271579797E+02
    0.124307390697768105E+01    0.954293566794204651E+01   -0.666131998635647316E+00    0.956380927358697477E+03    0.949624821747170667E+00   -0.163299429271579797E+02
    0.125130222128746227E+01    0.953237597639223999E+01   -0.667031497657592176E+00    0.873477200211586592E+03    0.935058263733702932E+00   -0.165384689125669411E+02
    0.125250766179518891E+01    0.953607842566492714E+01   -0.642881027528734883E+00    0.104249041341709199E+04    0.948834072825757380E+00   -0.163248439543380854E+02
    0.126633752228897101E+01    0.951445665452647305E+01   -0.650197538222680560E+00    0.899913107549961865E+03    0.910570366796378816E+00   -0.163395346938124462E+02
    0.125554140484560262E+01    0.952811558416783022E+01   -0.658372547218132098E+00    0.897749558450823201E+03    0.944548693701656505E+00   -0.165052909973936970E+02
    0.125166637481377907E+01    0.953132685475216945E+01   -0.666317720522820567E+00    0.952756823304960676E+03    0.907125926128262261E+00   -0.165670350086176796E+02
    0.125756215774387825E+01    0.953272987367011027E+01   -0.637783204311914265E+00    0.102542860911864500E+04    0.906149489101696792E+00   -0.165450098625774444E+02
    0.126150891567268397E+01    0.953234594405955526E+01   -0.617204951061294471E+00    0.991377035643250679E+03    0.901938728942394574E+00   -0.164951773158009765E+02
    0.122499831147043814E+01    0.956648634686943389E+01   -0.647767875106080471E+00    0.957748092856961762E+03    0.979238034461340057E+00   -0.161782489975691206E+02
    0.121357169641622464E+01    0.959323660392788291E+01   -0.603340461211996804E+00    0.864130644370753430E+03    0.964367795017530893E+00   -0.165646558707569227E+02
    0.120702306957478078E+01    0.958400111550687939E+01   -0.666271073696809379E+00    0.978220110598250244E+03    0.966267912154955888E+00   -0.162312958816443036E+02
    0.125756445034291264E+01    0.953991526443679128E+01   -0.600269641871896908E+00    0.926534013183356706E+03    0.919635087495227710E+00   -0.167076371955902978E+02
    0.120422124972135425E+01    0.958944138253393596E+01   -0.665874973604543285E+00    0.103206836029251599E+04    0.968067752679468096E+00   -0.161037419400327444E+02
    0.127018881100660486E+01    0.951234918123176776E+01   -0.659172948115634316E+00    0.910854170939886444E+03    0.874424771247870325E+00   -0.166618120243819909E+02
    0.128318776593846451E+01    0.949695864365603448E+01   -0.660340741891181082E+00    0.930827617815888175E+03    0.888170477446744711E+00   -0.165839468495945539E+02
    0.125130499414319063E+01    0.952945301559662816E+01   -0.674498432956322391E+00    0.967787812159245050E+03    0.989557889200063601E+00   -0.166541878270199213E+02
    0.150037420672015798E+01    0.930550940057727161E+01   -0.565069331544867381E+00    0.958025373519890536E+03    0.934741203888497907E+00   -0.166592159436874425E+02
    0.144888309098172785E+01    0.935183180697259608E+01   -0.583742513408474162E+00    0.996486911223935067E+03    0.945789408325720782E+00   -0.165290234601680588E+02
    0.144993748495665176E+01    0.935325795361423218E+01   -0.568996832250844520E+00    0.994708549375239272E+03    0.982293557635438352E+00   -0.163926172525129559E+02
    0.149432904677600464E+01    0.930338022958184929E+01   -0.603242831434279037E+00    0.901478183524088763E+03    0.857345854238893867E+00   -0.164415216898773622E+02
    0.135693454414316572E+01    0.943475025809098966E+01   -0.604556454682037892E+00    0.854788917473415836E+03    0.910475454303126153E+00   -0.164338816964963073E+02
    0.149353431677263271E+01    0.930527360765778511E+01   -0.594775665106614504E+00    0.807144595669802698E+03    0.820466721517441933E+00   -0.165748281315730388E+02
    0.140332086138759382E+01    0.939199915462022794E+01   -0.594818663959309823E+00    0.860605687193602080E+03    0.916451390391877618E+00   -0.164688935589153402E+02
    0.145088221965901965E+01    0.935227803446731087E+01   -0.572359927996482387E+00    0.105005978769137755E+04    0.985017527277672444E+00   -0.162782836089791800E+02
